digraph Tree {
node [shape=box, style="filled", color="black"] ;
0 [label="AIT201 <= 128.509\ngini = 0.226\nsamples = 10497\nvalue = [0.87, 0.13]\nclass = No", fillcolor="#e99456"] ;
1 [label="AIT202 <= 8.934\ngini = 0.499\nsamples = 2268\nvalue = [0.113, 0.103]\nclass = No", fillcolor="#fdf4ee"] ;
0 -> 1 [labeldistance=2.5, labelangle=45, headlabel="True"] ;
2 [label="LIT301 <= 923.001\ngini = 0.138\nsamples = 552\nvalue = [0.004, 0.049]\nclass = Yes", fillcolor="#49a5e7"] ;
1 -> 2 ;
3 [label="gini = 0.046\nsamples = 42\nvalue = [0.004, 0.0]\nclass = No", fillcolor="#e6843e"] ;
2 -> 3 ;
4 [label="gini = 0.0\nsamples = 510\nvalue = [0.0, 0.049]\nclass = Yes", fillcolor="#399de5"] ;
2 -> 4 ;
5 [label="DPIT301 <= 1.26\ngini = 0.445\nsamples = 1716\nvalue = [0.109, 0.055]\nclass = No", fillcolor="#f2c09c"] ;
1 -> 5 ;
6 [label="AIT201 <= 126.17\ngini = 0.5\nsamples = 944\nvalue = [0.044, 0.046]\nclass = Yes", fillcolor="#f4f9fe"] ;
5 -> 6 ;
7 [label="AIT203 <= 262.228\ngini = 0.387\nsamples = 610\nvalue = [0.043, 0.015]\nclass = No", fillcolor="#eeae7f"] ;
6 -> 7 ;
8 [label="gini = 0.006\nsamples = 334\nvalue = [0.032, 0.0]\nclass = No", fillcolor="#e5813a"] ;
7 -> 8 ;
9 [label="gini = 0.488\nsamples = 276\nvalue = [0.011, 0.015]\nclass = Yes", fillcolor="#cbe5f8"] ;
7 -> 9 ;
10 [label="LIT401 <= 806.024\ngini = 0.047\nsamples = 334\nvalue = [0.001, 0.031]\nclass = Yes", fillcolor="#3e9fe6"] ;
6 -> 10 ;
11 [label="gini = 0.32\nsamples = 10\nvalue = [0.001, 0.0]\nclass = No", fillcolor="#eca06b"] ;
10 -> 11 ;
12 [label="gini = -0.0\nsamples = 324\nvalue = [0.0, 0.031]\nclass = Yes", fillcolor="#399de5"] ;
10 -> 12 ;
13 [label="AIT402 <= 3.73\ngini = 0.2\nsamples = 772\nvalue = [0.065, 0.008]\nclass = No", fillcolor="#e89152"] ;
5 -> 13 ;
14 [label="gini = 0.461\nsamples = 242\nvalue = [0.015, 0.008]\nclass = No", fillcolor="#f4c8a8"] ;
13 -> 14 ;
15 [label="gini = 0.0\nsamples = 530\nvalue = [0.05, 0.0]\nclass = No", fillcolor="#e58139"] ;
13 -> 15 ;
16 [label="AIT402 <= 6.678\ngini = 0.065\nsamples = 8229\nvalue = [0.758, 0.026]\nclass = No", fillcolor="#e68540"] ;
0 -> 16 [labeldistance=2.5, labelangle=-45, headlabel="False"] ;
17 [label="AIT202 <= 9.395\ngini = 0.308\nsamples = 1459\nvalue = [0.113, 0.026]\nclass = No", fillcolor="#eb9f67"] ;
16 -> 17 ;
18 [label="LIT301 <= 947.033\ngini = 0.189\nsamples = 1299\nvalue = [0.111, 0.013]\nclass = No", fillcolor="#e89050"] ;
17 -> 18 ;
19 [label="AIT202 <= 9.383\ngini = 0.083\nsamples = 1113\nvalue = [0.101, 0.005]\nclass = No", fillcolor="#e68742"] ;
18 -> 19 ;
20 [label="gini = 0.0\nsamples = 990\nvalue = [0.094, 0.0]\nclass = No", fillcolor="#e58139"] ;
19 -> 20 ;
21 [label="gini = 0.476\nsamples = 123\nvalue = [0.007, 0.005]\nclass = No", fillcolor="#f6d2b8"] ;
19 -> 21 ;
22 [label="gini = 0.499\nsamples = 186\nvalue = [0.009, 0.008]\nclass = No", fillcolor="#fdf5ef"] ;
18 -> 22 ;
23 [label="gini = 0.219\nsamples = 160\nvalue = [0.002, 0.013]\nclass = Yes", fillcolor="#55abe9"] ;
17 -> 23 ;
24 [label="gini = 0.0\nsamples = 6770\nvalue = [0.645, 0.0]\nclass = No", fillcolor="#e58139"] ;
16 -> 24 ;
}