digraph Tree {
node [shape=box, style="filled", color="black"] ;
0 [label="LIT401 <= 977.23\ngini = 0.5\nsamples = 10497\nvalue = [0.5, 0.5]\nclass = No", fillcolor="#ffffff"] ;
1 [label="AIT203 <= 239.9\ngini = 0.488\nsamples = 9429\nvalue = [0.365, 0.5]\nclass = Yes", fillcolor="#c9e4f8"] ;
0 -> 1 [labeldistance=2.5, labelangle=45, headlabel="True"] ;
2 [label="LIT301 <= 1027.761\ngini = 0.316\nsamples = 2524\nvalue = [0.168, 0.041]\nclass = No", fillcolor="#eba069"] ;
1 -> 2 ;
3 [label="LIT401 <= 803.198\ngini = 0.152\nsamples = 2505\nvalue = [0.168, 0.015]\nclass = No", fillcolor="#e78c4b"] ;
2 -> 3 ;
4 [label="PIT501 <= 159.623\ngini = 0.0\nsamples = 473\nvalue = [0.0, 0.013]\nclass = Yes", fillcolor="#399de5"] ;
3 -> 4 ;
5 [label="gini = 0.0\nsamples = 424\nvalue = [0.0, 0.013]\nclass = Yes", fillcolor="#399de5"] ;
4 -> 5 ;
6 [label="gini = -0.0\nsamples = 49\nvalue = [0.0, 0.0]\nclass = No", fillcolor="#e58139"] ;
4 -> 6 ;
7 [label="AIT502 <= 69.508\ngini = 0.025\nsamples = 2032\nvalue = [0.168, 0.002]\nclass = No", fillcolor="#e5833c"] ;
3 -> 7 ;
8 [label="gini = 0.013\nsamples = 1563\nvalue = [0.168, 0.001]\nclass = No", fillcolor="#e5823a"] ;
7 -> 8 ;
9 [label="gini = 0.0\nsamples = 469\nvalue = [0.0, 0.001]\nclass = Yes", fillcolor="#399de5"] ;
7 -> 9 ;
10 [label="gini = -0.0\nsamples = 19\nvalue = [0.0, 0.026]\nclass = Yes", fillcolor="#399de5"] ;
2 -> 10 ;
11 [label="LIT301 <= 1069.858\ngini = 0.42\nsamples = 6905\nvalue = [0.197, 0.459]\nclass = Yes", fillcolor="#8ec7f0"] ;
1 -> 11 ;
12 [label="AIT202 <= 9.387\ngini = 0.333\nsamples = 6083\nvalue = [0.116, 0.436]\nclass = Yes", fillcolor="#6eb7ec"] ;
11 -> 12 ;
13 [label="LIT401 <= 848.917\ngini = 0.136\nsamples = 4748\nvalue = [0.027, 0.343]\nclass = Yes", fillcolor="#49a5e7"] ;
12 -> 13 ;
14 [label="gini = 0.0\nsamples = 1784\nvalue = [0.013, 0.0]\nclass = No", fillcolor="#e58139"] ;
13 -> 14 ;
15 [label="gini = 0.077\nsamples = 2964\nvalue = [0.014, 0.343]\nclass = Yes", fillcolor="#41a1e6"] ;
13 -> 15 ;
16 [label="LIT101 <= 641.174\ngini = 0.5\nsamples = 1335\nvalue = [0.089, 0.093]\nclass = Yes", fillcolor="#f7fbfe"] ;
12 -> 16 ;
17 [label="gini = 0.0\nsamples = 634\nvalue = [0.07, 0.0]\nclass = No", fillcolor="#e58139"] ;
16 -> 17 ;
18 [label="gini = 0.288\nsamples = 701\nvalue = [0.02, 0.093]\nclass = Yes", fillcolor="#63b2eb"] ;
16 -> 18 ;
19 [label="FIT503 <= 0.608\ngini = 0.345\nsamples = 822\nvalue = [0.08, 0.023]\nclass = No", fillcolor="#eca571"] ;
11 -> 19 ;
20 [label="FIT601 <= 0.0\ngini = 0.0\nsamples = 602\nvalue = [0.078, 0.0]\nclass = No", fillcolor="#e58139"] ;
19 -> 20 ;
21 [label="gini = 0.0\nsamples = 74\nvalue = [0.0, 0.0]\nclass = Yes", fillcolor="#399de5"] ;
20 -> 21 ;
22 [label="gini = 0.0\nsamples = 528\nvalue = [0.078, 0.0]\nclass = No", fillcolor="#e58139"] ;
20 -> 22 ;
23 [label="gini = 0.157\nsamples = 220\nvalue = [0.002, 0.023]\nclass = Yes", fillcolor="#4ca6e7"] ;
19 -> 23 ;
24 [label="gini = 0.0\nsamples = 1068\nvalue = [0.135, 0.0]\nclass = No", fillcolor="#e58139"] ;
0 -> 24 [labeldistance=2.5, labelangle=-45, headlabel="False"] ;
}