digraph Tree {
node [shape=box, style="filled", color="black"] ;
0 [label="LIT101 <= 549.833\ngini = 0.5\nsamples = 10497\nvalue = [0.5, 0.5]\nclass = No", fillcolor="#ffffff"] ;
1 [label="AIT203 <= 262.394\ngini = 0.228\nsamples = 1176\nvalue = [0.272, 0.041]\nclass = No", fillcolor="#e99457"] ;
0 -> 1 [labeldistance=2.5, labelangle=45, headlabel="True"] ;
2 [label="LIT401 <= 944.316\ngini = 0.019\nsamples = 650\nvalue = [0.272, 0.003]\nclass = No", fillcolor="#e5823b"] ;
1 -> 2 ;
3 [label="AIT504 <= 25.244\ngini = 0.005\nsamples = 438\nvalue = [0.272, 0.001]\nclass = No", fillcolor="#e58139"] ;
2 -> 3 ;
4 [label="gini = -0.0\nsamples = 280\nvalue = [0.271, 0.0]\nclass = No", fillcolor="#e58139"] ;
3 -> 4 ;
5 [label="gini = 0.478\nsamples = 158\nvalue = [0.001, 0.001]\nclass = No", fillcolor="#f6d3ba"] ;
3 -> 5 ;
6 [label="gini = 0.0\nsamples = 212\nvalue = [0.0, 0.002]\nclass = Yes", fillcolor="#399de5"] ;
2 -> 6 ;
7 [label="gini = 0.0\nsamples = 526\nvalue = [0.0, 0.038]\nclass = Yes", fillcolor="#399de5"] ;
1 -> 7 ;
8 [label="LIT301 <= 794.087\ngini = 0.444\nsamples = 9321\nvalue = [0.228, 0.459]\nclass = Yes", fillcolor="#9bcef2"] ;
0 -> 8 [labeldistance=2.5, labelangle=-45, headlabel="False"] ;
9 [label="gini = 0.0\nsamples = 241\nvalue = [0.168, 0.0]\nclass = No", fillcolor="#e58139"] ;
8 -> 9 ;
10 [label="AIT203 <= 239.644\ngini = 0.204\nsamples = 9080\nvalue = [0.06, 0.459]\nclass = Yes", fillcolor="#53aae8"] ;
8 -> 10 ;
11 [label="AIT503 <= 1016.326\ngini = 0.0\nsamples = 2207\nvalue = [0.026, 0.0]\nclass = No", fillcolor="#e58139"] ;
10 -> 11 ;
12 [label="PIT503 <= 113.392\ngini = 0.0\nsamples = 2187\nvalue = [0.026, 0.0]\nclass = No", fillcolor="#e58139"] ;
11 -> 12 ;
13 [label="gini = 0.025\nsamples = 125\nvalue = [0.0, 0.0]\nclass = Yes", fillcolor="#3c9ee5"] ;
12 -> 13 ;
14 [label="gini = 0.0\nsamples = 2062\nvalue = [0.026, 0.0]\nclass = No", fillcolor="#e58139"] ;
12 -> 14 ;
15 [label="gini = 0.005\nsamples = 20\nvalue = [0.0, 0.0]\nclass = Yes", fillcolor="#3a9de5"] ;
11 -> 15 ;
16 [label="AIT202 <= 8.997\ngini = 0.127\nsamples = 6873\nvalue = [0.034, 0.459]\nclass = Yes", fillcolor="#47a4e7"] ;
10 -> 16 ;
17 [label="gini = 0.0\nsamples = 45\nvalue = [0.013, 0.0]\nclass = No", fillcolor="#e58139"] ;
16 -> 17 ;
18 [label="AIT504 <= 25.167\ngini = 0.082\nsamples = 6828\nvalue = [0.021, 0.459]\nclass = Yes", fillcolor="#42a1e6"] ;
16 -> 18 ;
19 [label="gini = 0.048\nsamples = 5711\nvalue = [0.012, 0.457]\nclass = Yes", fillcolor="#3e9fe6"] ;
18 -> 19 ;
20 [label="gini = 0.302\nsamples = 1117\nvalue = [0.009, 0.002]\nclass = No", fillcolor="#eb9e66"] ;
18 -> 20 ;
}