digraph Tree {
node [shape=box, style="filled", color="black"] ;
0 [label="AIT201 <= 128.509\ngini = 0.224\nsamples = 10498\nvalue = [9148, 1350]\nclass = No", fillcolor="#e99456"] ;
1 [label="AIT202 <= 8.934\ngini = 0.499\nsamples = 2239\nvalue = [1159, 1080]\nclass = No", fillcolor="#fdf6f2"] ;
0 -> 1 [labeldistance=2.5, labelangle=45, headlabel="True"] ;
2 [label="LIT301 <= 923.001\ngini = 0.135\nsamples = 564\nvalue = [41, 523]\nclass = Yes", fillcolor="#49a5e7"] ;
1 -> 2 ;
3 [label="gini = 0.046\nsamples = 42\nvalue = [41, 1]\nclass = No", fillcolor="#e6843e"] ;
2 -> 3 ;
4 [label="gini = 0.0\nsamples = 522\nvalue = [0, 522]\nclass = Yes", fillcolor="#399de5"] ;
2 -> 4 ;
5 [label="DPIT301 <= 1.26\ngini = 0.444\nsamples = 1675\nvalue = [1118, 557]\nclass = No", fillcolor="#f2c09c"] ;
1 -> 5 ;
6 [label="AIT201 <= 126.17\ngini = 0.499\nsamples = 916\nvalue = [441, 475]\nclass = Yes", fillcolor="#f1f8fd"] ;
5 -> 6 ;
7 [label="AIT203 <= 262.228\ngini = 0.393\nsamples = 587\nvalue = [429, 158]\nclass = No", fillcolor="#efaf82"] ;
6 -> 7 ;
8 [label="gini = 0.0\nsamples = 322\nvalue = [322, 0]\nclass = No", fillcolor="#e58139"] ;
7 -> 8 ;
9 [label="gini = 0.481\nsamples = 265\nvalue = [107, 158]\nclass = Yes", fillcolor="#bfdff7"] ;
7 -> 9 ;
10 [label="LIT401 <= 805.294\ngini = 0.07\nsamples = 329\nvalue = [12, 317]\nclass = Yes", fillcolor="#40a1e6"] ;
6 -> 10 ;
11 [label="gini = 0.0\nsamples = 12\nvalue = [12, 0]\nclass = No", fillcolor="#e58139"] ;
10 -> 11 ;
12 [label="gini = 0.0\nsamples = 317\nvalue = [0, 317]\nclass = Yes", fillcolor="#399de5"] ;
10 -> 12 ;
13 [label="AIT402 <= 3.73\ngini = 0.193\nsamples = 759\nvalue = [677, 82]\nclass = No", fillcolor="#e89051"] ;
5 -> 13 ;
14 [label="gini = 0.444\nsamples = 247\nvalue = [165, 82]\nclass = No", fillcolor="#f2c09b"] ;
13 -> 14 ;
15 [label="gini = 0.0\nsamples = 512\nvalue = [512, 0]\nclass = No", fillcolor="#e58139"] ;
13 -> 15 ;
16 [label="AIT402 <= 6.627\ngini = 0.063\nsamples = 8259\nvalue = [7989, 270]\nclass = No", fillcolor="#e68540"] ;
0 -> 16 [labeldistance=2.5, labelangle=-45, headlabel="False"] ;
17 [label="AIT202 <= 9.383\ngini = 0.3\nsamples = 1460\nvalue = [1192, 268]\nclass = No", fillcolor="#eb9d66"] ;
16 -> 17 ;
18 [label="LIT301 <= 947.033\ngini = 0.122\nsamples = 1181\nvalue = [1104, 77]\nclass = No", fillcolor="#e78a47"] ;
17 -> 18 ;
19 [label="gini = 0.0\nsamples = 998\nvalue = [998, 0]\nclass = No", fillcolor="#e58139"] ;
18 -> 19 ;
20 [label="gini = 0.487\nsamples = 183\nvalue = [106, 77]\nclass = No", fillcolor="#f8ddc9"] ;
18 -> 20 ;
21 [label="gini = 0.432\nsamples = 279\nvalue = [88, 191]\nclass = Yes", fillcolor="#94caf1"] ;
17 -> 21 ;
22 [label="LIT301 <= 1010.338\ngini = 0.001\nsamples = 6799\nvalue = [6797, 2]\nclass = No", fillcolor="#e58139"] ;
16 -> 22 ;
23 [label="gini = 0.0\nsamples = 6788\nvalue = [6788, 0]\nclass = No", fillcolor="#e58139"] ;
22 -> 23 ;
24 [label="gini = 0.298\nsamples = 11\nvalue = [9, 2]\nclass = No", fillcolor="#eb9d65"] ;
22 -> 24 ;
}