digraph Tree {
node [shape=box] ;
0 [label="X[23] <= 128.509\ngini = 0.224\nsamples = 11997\nvalue = [10456, 1541]"] ;
1 [label="X[2] <= 8.934\ngini = 0.499\nsamples = 2582\nvalue = [1356, 1226]"] ;
0 -> 1 [labeldistance=2.5, labelangle=45, headlabel="True"] ;
2 [label="X[7] <= 923.001\ngini = 0.144\nsamples = 638\nvalue = [50, 588]"] ;
1 -> 2 ;
3 [label="X[10] <= 803.256\ngini = 0.038\nsamples = 51\nvalue = [50, 1]"] ;
2 -> 3 ;
4 [label="gini = 0.0\nsamples = 1\nvalue = [0, 1]"] ;
3 -> 4 ;
5 [label="gini = 0.0\nsamples = 50\nvalue = [50, 0]"] ;
3 -> 5 ;
6 [label="gini = 0.0\nsamples = 587\nvalue = [0, 587]"] ;
2 -> 6 ;
7 [label="X[5] <= 1.26\ngini = 0.441\nsamples = 1944\nvalue = [1306, 638]"] ;
1 -> 7 ;
8 [label="X[23] <= 126.17\ngini = 0.5\nsamples = 1073\nvalue = [526, 547]"] ;
7 -> 8 ;
9 [label="gini = 0.392\nsamples = 699\nvalue = [512, 187]"] ;
8 -> 9 ;
10 [label="gini = 0.072\nsamples = 374\nvalue = [14, 360]"] ;
8 -> 10 ;
11 [label="X[8] <= 3.73\ngini = 0.187\nsamples = 871\nvalue = [780, 91]"] ;
7 -> 11 ;
12 [label="gini = 0.437\nsamples = 282\nvalue = [191, 91]"] ;
11 -> 12 ;
13 [label="gini = 0.0\nsamples = 589\nvalue = [589, 0]"] ;
11 -> 13 ;
14 [label="X[8] <= 6.627\ngini = 0.065\nsamples = 9415\nvalue = [9100, 315]"] ;
0 -> 14 [labeldistance=2.5, labelangle=-45, headlabel="False"] ;
15 [label="X[2] <= 9.383\ngini = 0.305\nsamples = 1662\nvalue = [1350, 312]"] ;
14 -> 15 ;
16 [label="X[7] <= 947.033\ngini = 0.13\nsamples = 1340\nvalue = [1246, 94]"] ;
15 -> 16 ;
17 [label="gini = 0.0\nsamples = 1124\nvalue = [1124, 0]"] ;
16 -> 17 ;
18 [label="gini = 0.492\nsamples = 216\nvalue = [122, 94]"] ;
16 -> 18 ;
19 [label="X[7] <= 829.475\ngini = 0.437\nsamples = 322\nvalue = [104, 218]"] ;
15 -> 19 ;
20 [label="gini = 0.233\nsamples = 252\nvalue = [34, 218]"] ;
19 -> 20 ;
21 [label="gini = 0.0\nsamples = 70\nvalue = [70, 0]"] ;
19 -> 21 ;
22 [label="X[7] <= 1017.239\ngini = 0.001\nsamples = 7753\nvalue = [7750, 3]"] ;
14 -> 22 ;
23 [label="gini = 0.0\nsamples = 7740\nvalue = [7740, 0]"] ;
22 -> 23 ;
24 [label="X[3] <= 239.977\ngini = 0.355\nsamples = 13\nvalue = [10, 3]"] ;
22 -> 24 ;
25 [label="gini = 0.0\nsamples = 10\nvalue = [10, 0]"] ;
24 -> 25 ;
26 [label="gini = 0.0\nsamples = 3\nvalue = [0, 3]"] ;
24 -> 26 ;
}