digraph Tree {
node [shape=box] ;
0 [label="X[23] <= 128.509\ngini = 0.224\nsamples = 11997\nvalue = [10456, 1541]"] ;
1 [label="X[2] <= 8.934\ngini = 0.499\nsamples = 2581\nvalue = [1355, 1226]"] ;
0 -> 1 [labeldistance=2.5, labelangle=45, headlabel="True"] ;
2 [label="X[7] <= 923.001\ngini = 0.144\nsamples = 639\nvalue = [50, 589]"] ;
1 -> 2 ;
3 [label="X[10] <= 803.256\ngini = 0.038\nsamples = 51\nvalue = [50, 1]"] ;
2 -> 3 ;
4 [label="gini = 0.0\nsamples = 1\nvalue = [0, 1]"] ;
3 -> 4 ;
5 [label="gini = 0.0\nsamples = 50\nvalue = [50, 0]"] ;
3 -> 5 ;
6 [label="gini = 0.0\nsamples = 588\nvalue = [0, 588]"] ;
2 -> 6 ;
7 [label="X[5] <= 1.26\ngini = 0.441\nsamples = 1942\nvalue = [1305, 637]"] ;
1 -> 7 ;
8 [label="X[23] <= 126.17\ngini = 0.5\nsamples = 1073\nvalue = [526, 547]"] ;
7 -> 8 ;
9 [label="X[3] <= 262.228\ngini = 0.392\nsamples = 700\nvalue = [513, 187]"] ;
8 -> 9 ;
10 [label="gini = 0.005\nsamples = 382\nvalue = [381, 1]"] ;
9 -> 10 ;
11 [label="gini = 0.486\nsamples = 318\nvalue = [132, 186]"] ;
9 -> 11 ;
12 [label="X[10] <= 805.582\ngini = 0.067\nsamples = 373\nvalue = [13, 360]"] ;
8 -> 12 ;
13 [label="gini = 0.0\nsamples = 13\nvalue = [13, 0]"] ;
12 -> 13 ;
14 [label="gini = 0.0\nsamples = 360\nvalue = [0, 360]"] ;
12 -> 14 ;
15 [label="X[8] <= 3.73\ngini = 0.186\nsamples = 869\nvalue = [779, 90]"] ;
7 -> 15 ;
16 [label="X[10] <= 859.568\ngini = 0.437\nsamples = 279\nvalue = [189, 90]"] ;
15 -> 16 ;
17 [label="gini = 0.0\nsamples = 112\nvalue = [112, 0]"] ;
16 -> 17 ;
18 [label="gini = 0.497\nsamples = 167\nvalue = [77, 90]"] ;
16 -> 18 ;
19 [label="gini = 0.0\nsamples = 590\nvalue = [590, 0]"] ;
15 -> 19 ;
20 [label="X[8] <= 6.627\ngini = 0.065\nsamples = 9416\nvalue = [9101, 315]"] ;
0 -> 20 [labeldistance=2.5, labelangle=-45, headlabel="False"] ;
21 [label="X[2] <= 9.383\ngini = 0.305\nsamples = 1663\nvalue = [1351, 312]"] ;
20 -> 21 ;
22 [label="X[7] <= 947.033\ngini = 0.13\nsamples = 1340\nvalue = [1246, 94]"] ;
21 -> 22 ;
23 [label="gini = 0.0\nsamples = 1123\nvalue = [1123, 0]"] ;
22 -> 23 ;
24 [label="X[10] <= 865.816\ngini = 0.491\nsamples = 217\nvalue = [123, 94]"] ;
22 -> 24 ;
25 [label="gini = 0.336\nsamples = 117\nvalue = [25, 92]"] ;
24 -> 25 ;
26 [label="gini = 0.039\nsamples = 100\nvalue = [98, 2]"] ;
24 -> 26 ;
27 [label="X[10] <= 954.044\ngini = 0.439\nsamples = 323\nvalue = [105, 218]"] ;
21 -> 27 ;
28 [label="X[3] <= 242.079\ngini = 0.238\nsamples = 253\nvalue = [35, 218]"] ;
27 -> 28 ;
29 [label="gini = 0.0\nsamples = 35\nvalue = [35, 0]"] ;
28 -> 29 ;
30 [label="gini = 0.0\nsamples = 218\nvalue = [0, 218]"] ;
28 -> 30 ;
31 [label="gini = 0.0\nsamples = 70\nvalue = [70, 0]"] ;
27 -> 31 ;
32 [label="X[7] <= 1017.239\ngini = 0.001\nsamples = 7753\nvalue = [7750, 3]"] ;
20 -> 32 ;
33 [label="gini = 0.0\nsamples = 7740\nvalue = [7740, 0]"] ;
32 -> 33 ;
34 [label="X[9] <= 0.798\ngini = 0.355\nsamples = 13\nvalue = [10, 3]"] ;
32 -> 34 ;
35 [label="gini = 0.0\nsamples = 3\nvalue = [0, 3]"] ;
34 -> 35 ;
36 [label="gini = 0.0\nsamples = 10\nvalue = [10, 0]"] ;
34 -> 36 ;
}