digraph Tree {
node [shape=box] ;
0 [label="X[23] <= 128.509\ngini = 0.224\nsamples = 11997\nvalue = [10456, 1541]"] ;
1 [label="X[2] <= 8.934\ngini = 0.499\nsamples = 2581\nvalue = [1353, 1228]"] ;
0 -> 1 [labeldistance=2.5, labelangle=45, headlabel="True"] ;
2 [label="gini = 0.139\nsamples = 638\nvalue = [48, 590]"] ;
1 -> 2 ;
3 [label="gini = 0.441\nsamples = 1943\nvalue = [1305, 638]"] ;
1 -> 3 ;
4 [label="X[8] <= 6.627\ngini = 0.064\nsamples = 9416\nvalue = [9103, 313]"] ;
0 -> 4 [labeldistance=2.5, labelangle=-45, headlabel="False"] ;
5 [label="gini = 0.303\nsamples = 1665\nvalue = [1355, 310]"] ;
4 -> 5 ;
6 [label="gini = 0.001\nsamples = 7751\nvalue = [7748, 3]"] ;
4 -> 6 ;
}