digraph Tree {
node [shape=box] ;
0 [label="X[23] <= 128.509\ngini = 0.224\nsamples = 11997\nvalue = [10456, 1541]"] ;
1 [label="X[2] <= 8.934\ngini = 0.499\nsamples = 2582\nvalue = [1356, 1226]"] ;
0 -> 1 [labeldistance=2.5, labelangle=45, headlabel="True"] ;
2 [label="X[7] <= 923.001\ngini = 0.144\nsamples = 638\nvalue = [50, 588]"] ;
1 -> 2 ;
3 [label="X[10] <= 803.256\ngini = 0.038\nsamples = 51\nvalue = [50, 1]"] ;
2 -> 3 ;
4 [label="gini = 0.0\nsamples = 1\nvalue = [0, 1]"] ;
3 -> 4 ;
5 [label="gini = 0.0\nsamples = 50\nvalue = [50, 0]"] ;
3 -> 5 ;
6 [label="gini = 0.0\nsamples = 587\nvalue = [0, 587]"] ;
2 -> 6 ;
7 [label="X[5] <= 1.26\ngini = 0.441\nsamples = 1944\nvalue = [1306, 638]"] ;
1 -> 7 ;
8 [label="X[23] <= 126.17\ngini = 0.5\nsamples = 1073\nvalue = [526, 547]"] ;
7 -> 8 ;
9 [label="X[3] <= 262.228\ngini = 0.392\nsamples = 699\nvalue = [512, 187]"] ;
8 -> 9 ;
10 [label="gini = 0.005\nsamples = 381\nvalue = [380, 1]"] ;
9 -> 10 ;
11 [label="gini = 0.486\nsamples = 318\nvalue = [132, 186]"] ;
9 -> 11 ;
12 [label="X[10] <= 805.582\ngini = 0.072\nsamples = 374\nvalue = [14, 360]"] ;
8 -> 12 ;
13 [label="gini = 0.0\nsamples = 14\nvalue = [14, 0]"] ;
12 -> 13 ;
14 [label="gini = 0.0\nsamples = 360\nvalue = [0, 360]"] ;
12 -> 14 ;
15 [label="X[8] <= 3.73\ngini = 0.187\nsamples = 871\nvalue = [780, 91]"] ;
7 -> 15 ;
16 [label="X[10] <= 859.568\ngini = 0.437\nsamples = 282\nvalue = [191, 91]"] ;
15 -> 16 ;
17 [label="gini = 0.0\nsamples = 112\nvalue = [112, 0]"] ;
16 -> 17 ;
18 [label="gini = 0.498\nsamples = 170\nvalue = [79, 91]"] ;
16 -> 18 ;
19 [label="gini = 0.0\nsamples = 589\nvalue = [589, 0]"] ;
15 -> 19 ;
20 [label="X[8] <= 6.627\ngini = 0.065\nsamples = 9415\nvalue = [9100, 315]"] ;
0 -> 20 [labeldistance=2.5, labelangle=-45, headlabel="False"] ;
21 [label="X[2] <= 9.383\ngini = 0.305\nsamples = 1662\nvalue = [1350, 312]"] ;
20 -> 21 ;
22 [label="X[7] <= 947.033\ngini = 0.13\nsamples = 1340\nvalue = [1246, 94]"] ;
21 -> 22 ;
23 [label="gini = 0.0\nsamples = 1124\nvalue = [1124, 0]"] ;
22 -> 23 ;
24 [label="X[10] <= 865.432\ngini = 0.492\nsamples = 216\nvalue = [122, 94]"] ;
22 -> 24 ;
25 [label="gini = 0.32\nsamples = 115\nvalue = [23, 92]"] ;
24 -> 25 ;
26 [label="gini = 0.039\nsamples = 101\nvalue = [99, 2]"] ;
24 -> 26 ;
27 [label="X[1] <= 640.978\ngini = 0.437\nsamples = 322\nvalue = [104, 218]"] ;
21 -> 27 ;
28 [label="gini = 0.0\nsamples = 70\nvalue = [70, 0]"] ;
27 -> 28 ;
29 [label="X[1] <= 769.511\ngini = 0.233\nsamples = 252\nvalue = [34, 218]"] ;
27 -> 29 ;
30 [label="gini = 0.0\nsamples = 218\nvalue = [0, 218]"] ;
29 -> 30 ;
31 [label="gini = 0.0\nsamples = 34\nvalue = [34, 0]"] ;
29 -> 31 ;
32 [label="X[7] <= 1017.239\ngini = 0.001\nsamples = 7753\nvalue = [7750, 3]"] ;
20 -> 32 ;
33 [label="gini = 0.0\nsamples = 7740\nvalue = [7740, 0]"] ;
32 -> 33 ;
34 [label="X[10] <= 864.278\ngini = 0.355\nsamples = 13\nvalue = [10, 3]"] ;
32 -> 34 ;
35 [label="gini = 0.0\nsamples = 3\nvalue = [0, 3]"] ;
34 -> 35 ;
36 [label="gini = 0.0\nsamples = 10\nvalue = [10, 0]"] ;
34 -> 36 ;
}