digraph Tree {
node [shape=box] ;
0 [label="X[23] <= 128.509\ngini = 0.224\nsamples = 11996\nvalue = [10456, 1540]"] ;
1 [label="X[2] <= 8.934\ngini = 0.499\nsamples = 2581\nvalue = [1354, 1227]"] ;
0 -> 1 [labeldistance=2.5, labelangle=45, headlabel="True"] ;
2 [label="X[7] <= 923.001\ngini = 0.139\nsamples = 637\nvalue = [48, 589]"] ;
1 -> 2 ;
3 [label="gini = 0.0\nsamples = 48\nvalue = [48, 0]"] ;
2 -> 3 ;
4 [label="gini = 0.0\nsamples = 589\nvalue = [0, 589]"] ;
2 -> 4 ;
5 [label="X[5] <= 1.26\ngini = 0.441\nsamples = 1944\nvalue = [1306, 638]"] ;
1 -> 5 ;
6 [label="X[23] <= 126.17\ngini = 0.5\nsamples = 1071\nvalue = [525, 546]"] ;
5 -> 6 ;
7 [label="X[3] <= 262.228\ngini = 0.391\nsamples = 698\nvalue = [512, 186]"] ;
6 -> 7 ;
8 [label="X[5] <= 1.248\ngini = 0.005\nsamples = 381\nvalue = [380, 1]"] ;
7 -> 8 ;
9 [label="gini = 0.0\nsamples = 378\nvalue = [378, 0]"] ;
8 -> 9 ;
10 [label="X[16] <= 0.37\ngini = 0.444\nsamples = 3\nvalue = [2, 1]"] ;
8 -> 10 ;
11 [label="gini = 0.0\nsamples = 2\nvalue = [2, 0]"] ;
10 -> 11 ;
12 [label="gini = 0.0\nsamples = 1\nvalue = [0, 1]"] ;
10 -> 12 ;
13 [label="X[7] <= 938.421\ngini = 0.486\nsamples = 317\nvalue = [132, 185]"] ;
7 -> 13 ;
14 [label="gini = 0.0\nsamples = 129\nvalue = [129, 0]"] ;
13 -> 14 ;
15 [label="X[2] <= 9.146\ngini = 0.031\nsamples = 188\nvalue = [3, 185]"] ;
13 -> 15 ;
16 [label="gini = 0.0\nsamples = 2\nvalue = [2, 0]"] ;
15 -> 16 ;
17 [label="X[3] <= 262.394\ngini = 0.011\nsamples = 186\nvalue = [1, 185]"] ;
15 -> 17 ;
18 [label="X[18] <= 0.21\ngini = 0.375\nsamples = 4\nvalue = [1, 3]"] ;
17 -> 18 ;
19 [label="gini = 0.0\nsamples = 3\nvalue = [0, 3]"] ;
18 -> 19 ;
20 [label="gini = 0.0\nsamples = 1\nvalue = [1, 0]"] ;
18 -> 20 ;
21 [label="gini = 0.0\nsamples = 182\nvalue = [0, 182]"] ;
17 -> 21 ;
22 [label="X[10] <= 805.447\ngini = 0.067\nsamples = 373\nvalue = [13, 360]"] ;
6 -> 22 ;
23 [label="gini = 0.0\nsamples = 13\nvalue = [13, 0]"] ;
22 -> 23 ;
24 [label="gini = 0.0\nsamples = 360\nvalue = [0, 360]"] ;
22 -> 24 ;
25 [label="X[8] <= 3.73\ngini = 0.189\nsamples = 873\nvalue = [781, 92]"] ;
5 -> 25 ;
26 [label="X[10] <= 859.568\ngini = 0.44\nsamples = 281\nvalue = [189, 92]"] ;
25 -> 26 ;
27 [label="gini = 0.0\nsamples = 110\nvalue = [110, 0]"] ;
26 -> 27 ;
28 [label="X[7] <= 1027.761\ngini = 0.497\nsamples = 171\nvalue = [79, 92]"] ;
26 -> 28 ;
29 [label="gini = 0.0\nsamples = 79\nvalue = [79, 0]"] ;
28 -> 29 ;
30 [label="gini = 0.0\nsamples = 92\nvalue = [0, 92]"] ;
28 -> 30 ;
31 [label="gini = 0.0\nsamples = 592\nvalue = [592, 0]"] ;
25 -> 31 ;
32 [label="X[8] <= 6.678\ngini = 0.064\nsamples = 9415\nvalue = [9102, 313]"] ;
0 -> 32 [labeldistance=2.5, labelangle=-45, headlabel="False"] ;
33 [label="X[2] <= 9.383\ngini = 0.3\nsamples = 1700\nvalue = [1387, 313]"] ;
32 -> 33 ;
34 [label="X[7] <= 947.033\ngini = 0.128\nsamples = 1373\nvalue = [1279, 94]"] ;
33 -> 34 ;
35 [label="gini = 0.0\nsamples = 1149\nvalue = [1149, 0]"] ;
34 -> 35 ;
36 [label="X[10] <= 865.24\ngini = 0.487\nsamples = 224\nvalue = [130, 94]"] ;
34 -> 36 ;
37 [label="X[3] <= 240.349\ngini = 0.326\nsamples = 117\nvalue = [24, 93]"] ;
36 -> 37 ;
38 [label="gini = 0.0\nsamples = 85\nvalue = [0, 85]"] ;
37 -> 38 ;
39 [label="X[10] <= 860.068\ngini = 0.375\nsamples = 32\nvalue = [24, 8]"] ;
37 -> 39 ;
40 [label="X[19] <= 159.983\ngini = 0.245\nsamples = 28\nvalue = [24, 4]"] ;
39 -> 40 ;
41 [label="gini = 0.0\nsamples = 23\nvalue = [23, 0]"] ;
40 -> 41 ;
42 [label="X[10] <= 848.763\ngini = 0.32\nsamples = 5\nvalue = [1, 4]"] ;
40 -> 42 ;
43 [label="gini = 0.0\nsamples = 1\nvalue = [1, 0]"] ;
42 -> 43 ;
44 [label="gini = 0.0\nsamples = 4\nvalue = [0, 4]"] ;
42 -> 44 ;
45 [label="gini = 0.0\nsamples = 4\nvalue = [0, 4]"] ;
39 -> 45 ;
46 [label="X[21] <= 114.009\ngini = 0.019\nsamples = 107\nvalue = [106, 1]"] ;
36 -> 46 ;
47 [label="gini = 0.0\nsamples = 1\nvalue = [0, 1]"] ;
46 -> 47 ;
48 [label="gini = 0.0\nsamples = 106\nvalue = [106, 0]"] ;
46 -> 48 ;
49 [label="X[10] <= 954.236\ngini = 0.442\nsamples = 327\nvalue = [108, 219]"] ;
33 -> 49 ;
50 [label="X[10] <= 912.401\ngini = 0.257\nsamples = 258\nvalue = [39, 219]"] ;
49 -> 50 ;
51 [label="gini = 0.0\nsamples = 39\nvalue = [39, 0]"] ;
50 -> 51 ;
52 [label="gini = 0.0\nsamples = 219\nvalue = [0, 219]"] ;
50 -> 52 ;
53 [label="gini = 0.0\nsamples = 69\nvalue = [69, 0]"] ;
49 -> 53 ;
54 [label="gini = 0.0\nsamples = 7715\nvalue = [7715, 0]"] ;
32 -> 54 ;
}