digraph Tree {
node [shape=box] ;
0 [label="X[23] <= 128.509\ngini = 0.224\nsamples = 11997\nvalue = [10456, 1541]"] ;
1 [label="X[2] <= 8.934\ngini = 0.499\nsamples = 2579\nvalue = [1354, 1225]"] ;
0 -> 1 [labeldistance=2.5, labelangle=45, headlabel="True"] ;
2 [label="gini = 0.14\nsamples = 636\nvalue = [48, 588]"] ;
1 -> 2 ;
3 [label="gini = 0.441\nsamples = 1943\nvalue = [1306, 637]"] ;
1 -> 3 ;
4 [label="X[8] <= 6.627\ngini = 0.065\nsamples = 9418\nvalue = [9102, 316]"] ;
0 -> 4 [labeldistance=2.5, labelangle=-45, headlabel="False"] ;
5 [label="gini = 0.305\nsamples = 1664\nvalue = [1351, 313]"] ;
4 -> 5 ;
6 [label="gini = 0.001\nsamples = 7754\nvalue = [7751, 3]"] ;
4 -> 6 ;
}