digraph Tree {
node [shape=box, style="filled", color="black"] ;
0 [label="AIT201 <= 128.509\ngini = 0.224\nsamples = 10498\nvalue = [9148, 1350]\nclass = No", fillcolor="#e99456"] ;
1 [label="AIT202 <= 8.934\ngini = 0.499\nsamples = 2239\nvalue = [1159, 1080]\nclass = No", fillcolor="#fdf6f2"] ;
0 -> 1 [labeldistance=2.5, labelangle=45, headlabel="True"] ;
2 [label="LIT301 <= 923.001\ngini = 0.135\nsamples = 564\nvalue = [41, 523]\nclass = Yes", fillcolor="#49a5e7"] ;
1 -> 2 ;
3 [label="LIT401 <= 803.256\ngini = 0.046\nsamples = 42\nvalue = [41, 1]\nclass = No", fillcolor="#e6843e"] ;
2 -> 3 ;
4 [label="gini = 0.0\nsamples = 1\nvalue = [0, 1]\nclass = Yes", fillcolor="#399de5"] ;
3 -> 4 ;
5 [label="gini = 0.0\nsamples = 41\nvalue = [41, 0]\nclass = No", fillcolor="#e58139"] ;
3 -> 5 ;
6 [label="gini = 0.0\nsamples = 522\nvalue = [0, 522]\nclass = Yes", fillcolor="#399de5"] ;
2 -> 6 ;
7 [label="DPIT301 <= 1.26\ngini = 0.444\nsamples = 1675\nvalue = [1118, 557]\nclass = No", fillcolor="#f2c09c"] ;
1 -> 7 ;
8 [label="AIT201 <= 126.17\ngini = 0.499\nsamples = 916\nvalue = [441, 475]\nclass = Yes", fillcolor="#f1f8fd"] ;
7 -> 8 ;
9 [label="AIT203 <= 262.228\ngini = 0.393\nsamples = 587\nvalue = [429, 158]\nclass = No", fillcolor="#efaf82"] ;
8 -> 9 ;
10 [label="gini = 0.0\nsamples = 322\nvalue = [322, 0]\nclass = No", fillcolor="#e58139"] ;
9 -> 10 ;
11 [label="gini = 0.481\nsamples = 265\nvalue = [107, 158]\nclass = Yes", fillcolor="#bfdff7"] ;
9 -> 11 ;
12 [label="LIT401 <= 805.294\ngini = 0.07\nsamples = 329\nvalue = [12, 317]\nclass = Yes", fillcolor="#40a1e6"] ;
8 -> 12 ;
13 [label="gini = 0.0\nsamples = 12\nvalue = [12, 0]\nclass = No", fillcolor="#e58139"] ;
12 -> 13 ;
14 [label="gini = 0.0\nsamples = 317\nvalue = [0, 317]\nclass = Yes", fillcolor="#399de5"] ;
12 -> 14 ;
15 [label="AIT402 <= 3.73\ngini = 0.193\nsamples = 759\nvalue = [677, 82]\nclass = No", fillcolor="#e89051"] ;
7 -> 15 ;
16 [label="LIT401 <= 859.626\ngini = 0.444\nsamples = 247\nvalue = [165, 82]\nclass = No", fillcolor="#f2c09b"] ;
15 -> 16 ;
17 [label="gini = 0.0\nsamples = 95\nvalue = [95, 0]\nclass = No", fillcolor="#e58139"] ;
16 -> 17 ;
18 [label="gini = 0.497\nsamples = 152\nvalue = [70, 82]\nclass = Yes", fillcolor="#e2f1fb"] ;
16 -> 18 ;
19 [label="gini = 0.0\nsamples = 512\nvalue = [512, 0]\nclass = No", fillcolor="#e58139"] ;
15 -> 19 ;
20 [label="AIT402 <= 6.627\ngini = 0.063\nsamples = 8259\nvalue = [7989, 270]\nclass = No", fillcolor="#e68540"] ;
0 -> 20 [labeldistance=2.5, labelangle=-45, headlabel="False"] ;
21 [label="AIT202 <= 9.383\ngini = 0.3\nsamples = 1460\nvalue = [1192, 268]\nclass = No", fillcolor="#eb9d66"] ;
20 -> 21 ;
22 [label="LIT301 <= 947.033\ngini = 0.122\nsamples = 1181\nvalue = [1104, 77]\nclass = No", fillcolor="#e78a47"] ;
21 -> 22 ;
23 [label="gini = 0.0\nsamples = 998\nvalue = [998, 0]\nclass = No", fillcolor="#e58139"] ;
22 -> 23 ;
24 [label="LIT401 <= 865.24\ngini = 0.487\nsamples = 183\nvalue = [106, 77]\nclass = No", fillcolor="#f8ddc9"] ;
22 -> 24 ;
25 [label="gini = 0.351\nsamples = 97\nvalue = [22, 75]\nclass = Yes", fillcolor="#73baed"] ;
24 -> 25 ;
26 [label="gini = 0.045\nsamples = 86\nvalue = [84, 2]\nclass = No", fillcolor="#e6843e"] ;
24 -> 26 ;
27 [label="LIT101 <= 640.978\ngini = 0.432\nsamples = 279\nvalue = [88, 191]\nclass = Yes", fillcolor="#94caf1"] ;
21 -> 27 ;
28 [label="gini = 0.0\nsamples = 62\nvalue = [62, 0]\nclass = No", fillcolor="#e58139"] ;
27 -> 28 ;
29 [label="LIT101 <= 769.511\ngini = 0.211\nsamples = 217\nvalue = [26, 191]\nclass = Yes", fillcolor="#54aae9"] ;
27 -> 29 ;
30 [label="gini = 0.0\nsamples = 191\nvalue = [0, 191]\nclass = Yes", fillcolor="#399de5"] ;
29 -> 30 ;
31 [label="gini = 0.0\nsamples = 26\nvalue = [26, 0]\nclass = No", fillcolor="#e58139"] ;
29 -> 31 ;
32 [label="LIT301 <= 1017.239\ngini = 0.001\nsamples = 6799\nvalue = [6797, 2]\nclass = No", fillcolor="#e58139"] ;
20 -> 32 ;
33 [label="gini = 0.0\nsamples = 6792\nvalue = [6792, 0]\nclass = No", fillcolor="#e58139"] ;
32 -> 33 ;
34 [label="AIT203 <= 239.977\ngini = 0.408\nsamples = 7\nvalue = [5, 2]\nclass = No", fillcolor="#efb388"] ;
32 -> 34 ;
35 [label="gini = 0.0\nsamples = 5\nvalue = [5, 0]\nclass = No", fillcolor="#e58139"] ;
34 -> 35 ;
36 [label="gini = 0.0\nsamples = 2\nvalue = [0, 2]\nclass = Yes", fillcolor="#399de5"] ;
34 -> 36 ;
}