digraph Tree {
node [shape=box, style="filled", color="black"] ;
0 [label="AIT201 <= 128.509\ngini = 0.221\nsamples = 10498\nvalue = [9168, 1330]\nclass = No", fillcolor="#e99356"] ;
1 [label="AIT203 <= 235.939\ngini = 0.498\nsamples = 2228\nvalue = [1176, 1052]\nclass = No", fillcolor="#fcf2ea"] ;
0 -> 1 [labeldistance=2.5, labelangle=45, headlabel="True"] ;
2 [label="LIT301 <= 923.421\ngini = 0.143\nsamples = 528\nvalue = [41, 487]\nclass = Yes", fillcolor="#4aa5e7"] ;
1 -> 2 ;
3 [label="LIT401 <= 803.256\ngini = 0.046\nsamples = 42\nvalue = [41, 1]\nclass = No", fillcolor="#e6843e"] ;
2 -> 3 ;
4 [label="gini = 0.0\nsamples = 1\nvalue = [0, 1]\nclass = Yes", fillcolor="#399de5"] ;
3 -> 4 ;
5 [label="gini = 0.0\nsamples = 41\nvalue = [41, 0]\nclass = No", fillcolor="#e58139"] ;
3 -> 5 ;
6 [label="gini = 0.0\nsamples = 486\nvalue = [0, 486]\nclass = Yes", fillcolor="#399de5"] ;
2 -> 6 ;
7 [label="DPIT301 <= 1.26\ngini = 0.444\nsamples = 1700\nvalue = [1135, 565]\nclass = No", fillcolor="#f2c09c"] ;
1 -> 7 ;
8 [label="AIT201 <= 126.17\ngini = 0.5\nsamples = 951\nvalue = [464, 487]\nclass = Yes", fillcolor="#f6fafe"] ;
7 -> 8 ;
9 [label="gini = 0.393\nsamples = 617\nvalue = [451, 166]\nclass = No", fillcolor="#efaf82"] ;
8 -> 9 ;
10 [label="gini = 0.075\nsamples = 334\nvalue = [13, 321]\nclass = Yes", fillcolor="#41a1e6"] ;
8 -> 10 ;
11 [label="AIT402 <= 3.679\ngini = 0.187\nsamples = 749\nvalue = [671, 78]\nclass = No", fillcolor="#e89050"] ;
7 -> 11 ;
12 [label="gini = 0.462\nsamples = 196\nvalue = [125, 71]\nclass = No", fillcolor="#f4c9a9"] ;
11 -> 12 ;
13 [label="gini = 0.025\nsamples = 553\nvalue = [546, 7]\nclass = No", fillcolor="#e5833c"] ;
11 -> 13 ;
14 [label="AIT402 <= 6.627\ngini = 0.065\nsamples = 8270\nvalue = [7992, 278]\nclass = No", fillcolor="#e68540"] ;
0 -> 14 [labeldistance=2.5, labelangle=-45, headlabel="False"] ;
15 [label="AIT202 <= 9.395\ngini = 0.309\nsamples = 1443\nvalue = [1168, 275]\nclass = No", fillcolor="#eb9f68"] ;
14 -> 15 ;
16 [label="DPIT301 <= 12.389\ngini = 0.179\nsamples = 1271\nvalue = [1145, 126]\nclass = No", fillcolor="#e88f4f"] ;
15 -> 16 ;
17 [label="gini = 0.007\nsamples = 828\nvalue = [825, 3]\nclass = No", fillcolor="#e5813a"] ;
16 -> 17 ;
18 [label="gini = 0.401\nsamples = 443\nvalue = [320, 123]\nclass = No", fillcolor="#efb185"] ;
16 -> 18 ;
19 [label="LIT101 <= 769.864\ngini = 0.232\nsamples = 172\nvalue = [23, 149]\nclass = Yes", fillcolor="#58ace9"] ;
15 -> 19 ;
20 [label="gini = 0.086\nsamples = 156\nvalue = [7, 149]\nclass = Yes", fillcolor="#42a2e6"] ;
19 -> 20 ;
21 [label="gini = 0.0\nsamples = 16\nvalue = [16, 0]\nclass = No", fillcolor="#e58139"] ;
19 -> 21 ;
22 [label="LIT301 <= 1017.239\ngini = 0.001\nsamples = 6827\nvalue = [6824, 3]\nclass = No", fillcolor="#e58139"] ;
14 -> 22 ;
23 [label="gini = 0.0\nsamples = 6815\nvalue = [6815, 0]\nclass = No", fillcolor="#e58139"] ;
22 -> 23 ;
24 [label="LIT101 <= 819.735\ngini = 0.375\nsamples = 12\nvalue = [9, 3]\nclass = No", fillcolor="#eeab7b"] ;
22 -> 24 ;
25 [label="gini = 0.0\nsamples = 3\nvalue = [0, 3]\nclass = Yes", fillcolor="#399de5"] ;
24 -> 25 ;
26 [label="gini = 0.0\nsamples = 9\nvalue = [9, 0]\nclass = No", fillcolor="#e58139"] ;
24 -> 26 ;
}